-0.0356487742539864
0.06308857344234402
0.07982478307584001
0.08978412960000001
0.10047378457599998
-0.004643014055847244
-0.06660675309525013
-0.22917319653331228
-0.3605317345637603
-1.7496017114101616
-2.0588831453958636
-0.7439443066337799
0.64444159954944
-1.4354444001445272
-2.6736736929254747
-3.868680452306509
-5.167860248250644
-5.671843517847187
-6.986639057256842
-7.518973417060105
-7.3576966977890415
-6.914911119830528
-3.531153012487872
2.0556860897689604
-2.4933394561073734
-5.53338471297571
-7.004050995051497
-9.539344877780046
-0.5853360376607015
0.5024766688752407
2.8455547728762456
2.2150572258807855
4.17920501154816
4.362657664245761
4.124389166752816
1.9225575078946626
-0.8001125681451722
-3.330563462333215
-4.238363446053205
-2.8390562051972106
-3.878273770067339
-2.8222350722586116
-2.9472541131285865
-1.965001036764348
-1.6402147614678677
1.0349978909124875
6.636262357711361
6.814998452247039
6.99266519547904
6.799688508016504
-4.214822294225472
-18.80038319475178
-20.99125343518711
-21.467478236308498
